#include "cnnData.h"
#ifndef TRAIN
float w1[]  = {
	0.61216,1.1511,0.70932,0.21205,-0.43654,
	0.45746,0.87273,0.60302,0.49517,-0.22563,
	0.50986,0.43034,0.59018,0.50489,-0.059744,
	0.4528,0.69448,0.6252,0.36008,-0.36059,
	0.70438,0.63561,0.34643,0.28302,-0.56973,
	-0.8065,-1.2642,-0.85921,-0.4246,-0.40717,
	-0.79285,-0.55957,-0.33715,-0.58105,-0.41237,
	-0.44985,-0.32542,-0.26503,-0.30403,-0.3883,
	-0.47812,-0.21679,-0.45308,-0.40866,-0.1844,
	-0.62371,-0.65242,-0.44366,-0.14323,0.17575,
	-1.857,-0.71272,0.19107,0.63667,0.60305,
	-1.3959,-0.229,0.82841,0.86126,0.72397,
	-1.0561,0.29883,1.0332,0.95214,1.2188,
	-0.62732,0.42175,0.79004,1.0223,1.5336,
	-0.66852,0.21028,0.60107,1.2068,1.5586,
	0.89726,1.0744,0.74601,-0.042742,-0.365,
	0.71547,0.98021,0.39217,-0.039779,-0.39145,
	0.54783,0.7758,0.37766,0.28987,-0.24991,
	0.6743,0.87849,0.58754,0.055717,-0.32142,
	0.70329,0.50919,0.35669,-0.057306,-0.029109,
	0.015023,-0.95601,-1.1769,-0.79077,-0.73477,
	-0.35834,-0.69536,-0.71348,-0.50772,-0.80049,
	-0.38881,-0.21442,-0.25021,-0.65417,-0.60447,
	-0.3863,-0.093086,-0.19004,-0.52427,-0.91721,
	-0.33798,-0.19066,-0.50571,-0.89705,-0.58201,
	0.40686,0.74231,0.50216,0.22366,-0.44213,
	0.78219,1.0069,0.6531,0.28315,-0.18187,
	0.69757,0.61302,0.42331,0.50599,-0.18177,
	0.54696,0.78343,0.54591,0.42454,-0.30522,
	0.76324,0.89247,0.70205,0.051443,-0.45431

};
float w2[]  = {0.0};
float w3[]  = {
	-0.37737,-0.4483,-0.42442,-0.38276,-0.00659, 
	-0.38285,-0.30643,-0.40256,-0.17103,0.18059, 
	-0.27699,-0.24403,-0.14124,0.050688,0.22104, 
	-0.42228,-0.30104,-0.09131,0.096835,0.18124, 
	-0.94602,-0.51542,-0.25477,0.027245,-0.02101, 
	0.36759,0.27385,0.3077,0.12261,-0.23853, 
	0.30394,0.28154,0.32263,0.029582,-0.1637, 
	0.17745,0.12451,-0.09288,-0.13891,-0.35537, 
	0.27199,0.17145,0.034584,-0.19936,-0.35248, 
	0.67951,0.35024,0.26267,-0.03835,0.044448, 
	-0.45205,-0.38662,-0.22249,0.070195,0.13445, 
	-0.35956,-0.32457,-0.15653,0.30384,0.29881, 
	-0.21534,-0.17028,-0.07607,0.25437,0.10159, 
	-0.34652,-0.17178,0.061252,0.21804,0.078959, 
	-0.74433,-0.35144,-0.19519,-0.06376,-0.1353, 
	-0.27096,-0.35846,-0.39925,-0.35795,0.0074, 
	-0.29041,-0.20232,-0.28735,-0.2943,0.071856, 
	-0.22671,-0.12177,-0.06894,0.039939,0.084416, 
	-0.40342,-0.09954,0.079647,0.062056,0.21223, 
	-0.81435,-0.49728,-0.37351,0.070108,0.10733, 
	0.33654,0.48896,0.2656,0.074165,-0.28406, 
	0.15545,0.34611,0.27483,0.068119,-0.29275, 
	0.083164,-0.00928,-0.013,-0.13897,-0.37454, 
	0.33797,0.098659,0.005196,-0.17034,-0.26292, 
	0.71696,0.46602,0.040974,-0.12985,0.092634, 
	-0.30021,-0.38361,-0.40946,-0.38925,0.15321, 
	-0.2953,-0.3247,-0.15446,-0.0807,0.22796, 
	-0.18361,-0.07515,0.059429,0.00317,0.33897, 
	-0.4278,-0.24676,0.001654,-0.04121,0.29985, 
	-0.90371,-0.71188,-0.34905,-0.0405,-0.07194, 
	-0.0083,-0.42267,-0.58945,-0.36835,-0.34454, 
	-0.00628,-0.20506,-0.33481,-0.24208,-0.17429, 
	-0.01194,0.084457,0.057663,0.020712,0.2702, 
	-0.20479,0.042313,0.16891,0.51781,0.19726, 
	-0.68204,0.089242,0.4906,0.38655,0.065537, 
	0.062828,0.47296,0.59802,0.62118,0.26541, 
	0.32406,0.44055,0.56336,0.29575,0.074889, 
	0.11082,0.15241,0.13586,0.013704,-0.11641, 
	0.30363,0.10731,-0.09197,-0.19538,-0.18779, 
	0.45611,0.12407,-0.16519,-0.17784,0.065531, 
	-0.35231,-0.6352,-0.48051,-0.61426,0.050703, 
	-0.13566,-0.23154,-0.24679,-0.26986,0.28776, 
	-0.11988,0.054852,0.17948,0.33969,0.68991, 
	-0.20751,0.20522,0.28677,0.30536,0.34263, 
	-0.10522,0.22617,0.30136,-0.003,-0.10393, 
	0.19099,-0.36633,-0.62862,-0.47177,-0.28668, 
	0.12254,-0.21263,-0.38529,-0.22844,-0.20965, 
	0.08128,-0.00884,0.005556,0.035039,0.086601, 
	-0.24082,-0.02913,0.122,0.36919,0.24378, 
	-0.59992,0.01023,0.37068,0.43656,0.11217, 
	0.26716,0.55316,0.76033,0.66286,0.27017, 
	0.37072,0.47546,0.35561,0.28574,-0.07466, 
	0.22123,0.11985,-0.00489,0.12295,-0.22762, 
	0.33697,-0.08188,-0.16779,-0.21069,-0.1739, 
	0.42011,0.038603,-0.17597,0.020386,0.21929, 
	0.028059,-0.45106,-0.59393,-0.55565,-0.49034, 
	-0.01748,-0.22703,-0.43846,-0.19392,-0.16023, 
	0.024293,0.09121,0.033228,0.10536,0.10784, 
	-0.41846,0.012489,0.33919,0.55947,0.40388, 
	-0.68121,0.1031,0.489,0.41312,-0.01294, 
	-0.04645,0.009496,-0.20424,-0.34434,-0.92925, 
	-0.14394,-0.3989,-0.21985,-0.37123,-0.83095, 
	-0.04659,-0.03074,-0.10305,0.017103,-0.35484, 
	-0.05982,0.13928,0.3175,0.29574,0.10736, 
	-0.15863,0.21364,0.29299,0.4668,0.61517, 
	-0.21088,-0.02162,-0.01613,0.45023,0.76696, 
	0.26497,0.28621,0.05431,0.25307,0.57157, 
	0.16786,0.06636,0.071839,0.072312,0.25124, 
	0.12714,0.053861,-0.34191,-0.35436,-0.32118, 
	-0.04092,-0.19965,-0.45313,-0.56282,-0.70643, 
	-0.41963,-0.27651,-0.28376,-0.7277,-0.91306, 
	-0.42377,-0.34721,-0.11033,-0.62999,-0.69971, 
	-0.04186,-0.06758,0.16486,-0.31397,-0.22412, 
	0.19391,-0.07537,0.28268,0.40017,0.14134, 
	0.017057,0.09938,0.34938,0.46192,0.62538, 
	0.027926,-0.00237,-0.0472,-0.21687,-0.67892, 
	-0.15583,-0.38279,-0.13634,-0.25419,-0.54915, 
	-0.04824,-0.23684,0.080049,-0.01505,-0.19636, 
	-0.08226,-0.02269,0.24618,0.28575,0.1768, 
	-0.01352,0.065408,0.27373,0.56853,0.67601, 
	0.089352,-0.05313,0.18884,0.45026,0.73794, 
	0.41791,0.077873,0.17466,0.34683,0.68085, 
	0.13753,0.13489,0.03038,0.056031,0.15788, 
	0.16955,0.043658,-0.38824,-0.1852,-0.12249, 
	0.13414,-0.09134,-0.53349,-0.70041,-0.52339, 
	0.12285,-0.22134,-0.0765,-0.4112,-0.78877, 
	-0.2002,-0.34534,-0.30401,-0.22236,-0.73736, 
	0.009333,-0.11314,-0.06985,-0.11723,-0.18713, 
	-0.05464,0.13815,0.2516,0.38037,0.21425, 
	-0.13922,0.17601,0.36727,0.47292,0.67445, 
	0.59541,0.358,0.2535,0.40147,0.090558, 
	0.67437,0.50241,0.16435,0.091766,-0.0342, 
	0.23416,0.25589,-0.05132,-0.08471,-0.15934, 
	-0.03891,-0.24544,-0.43986,-0.07936,-0.47909, 
	-0.02947,-0.49657,-0.77636,-0.44324,-0.51781, 
	-0.09437,-0.20843,-0.1455,-0.11359,-0.08177, 
	-0.39959,-0.38215,-0.00944,0.066949,0.1192, 
	-0.28536,-0.15693,0.082338,0.062357,0.071854, 
	0.19717,0.48306,0.38169,0.31289,0.4501, 
	0.30209,0.63389,0.61654,0.64244,0.38845, 
	0.46447,0.29645,0.14739,0.31012,0.056754, 
	0.47661,0.19764,-0.08206,-0.18365,-0.38466, 
	0.31625,0.06423,-0.21877,-0.53688,-0.61685, 
	-0.03534,-0.35135,-0.49053,-0.87591,-0.45731, 
	-0.21492,-0.81145,-0.78621,-0.75792,0.23869, 
	0.49432,0.52461,0.36693,0.43597,0.267, 
	0.47296,0.69856,0.24813,0.20846,0.17021, 
	0.27344,0.43438,-0.0265,0.0208,0.079296, 
	0.067583,-0.11508,-0.48028,0.086152,-0.15108, 
	-0.0753,-0.4385,-0.67227,-0.3097,-0.32012, 
	-0.18695,-0.09778,-0.01091,-0.03527,0.25483, 
	-0.32877,-0.24046,0.13825,-0.02165,0.22506, 
	-0.11953,0.2239,0.005812,0.057911,0.3768, 
	0.30659,0.42863,0.29345,0.44614,0.53234, 
	0.50637,0.54552,0.56326,0.75248,-0.02052, 
	0.43932,0.56879,0.39586,0.30215,0.17635, 
	0.56363,0.60163,0.24466,0.062618,-0.01588, 
	0.053715,0.087184,-0.22123,-0.01456,-0.11563, 
	-0.0663,-0.22925,-0.59854,-0.21829,-0.38875, 
	-0.00381,-0.35646,-0.7491,-0.45497,-0.41245, 
	0.54941,0.00389,-0.47781,-0.70561,-1.0457, 
	0.24586,-0.03976,-0.43471,-0.38109,-0.72705, 
	-0.03211,-0.04923,-0.16198,-0.05637,-0.54509, 
	-0.00414,-0.01909,0.086483,0.061224,-0.42962, 
	0.12415,0.2665,0.17179,0.078815,-0.33607, 
	-0.48035,-0.08548,0.32488,0.53616,0.73738, 
	-0.22971,-0.00621,0.18773,0.371,0.62842, 
	-0.04214,-0.1467,0.051427,-0.11488,0.46734, 
	0.073446,-0.19597,-0.30101,-0.07161,0.29351, 
	0.078684,-0.31672,-0.27168,0.020668,0.20003, 
	-0.07937,-0.3659,-0.7496,-0.97697,-1.3301, 
	-0.08582,-0.45734,-0.2599,-0.71081,-1.1689, 
	-0.12284,0.013327,0.15022,-0.63339,-1.0086, 
	-0.04159,0.28192,0.13271,-0.57618,-0.75757, 
	0.40349,0.27397,0.083665,-0.3842,-0.30914, 
	0.5044,0.004168,-0.31629,-0.5581,-0.76681, 
	0.27116,0.068102,-0.27091,-0.23854,-0.56833, 
	0.045815,0.041923,-0.0581,0.004327,-0.27162, 
	0.023464,0.060314,0.0519,0.19469,-0.19788, 
	-0.02651,0.29881,0.17355,0.11562,-0.35326, 
	-0.35804,0.16006,0.51987,0.76326,1.1778, 
	-0.2066,0.023262,0.14337,0.47714,0.67956, 
	-0.02992,-0.11927,-0.03769,0.093752,0.55348, 
	0.16891,-0.07972,-0.11844,0.059015,0.27581, 
	-0.17338,-0.24961,-0.1997,-0.09735,-0.0148, 
	0.33728,0.11029,-0.46294,-0.80802,-1.0379, 
	0.096868,-0.02425,-0.41017,-0.30438,-0.79633, 
	0.008787,-0.22214,-0.18011,0.019708,-0.54297, 
	0.036441,0.03971,0.064172,0.2203,-0.53755, 
	-0.02267,0.30913,0.35518,0.11481,-0.28522, 
	-0.19634,-0.42961,-0.26561,-0.12584,-0.22029, 
	0.019571,-0.33162,0.092801,0.095072,0.079913, 
	0.11642,-0.13559,0.44934,0.29873,0.25722, 
	-0.21125,-0.08588,0.50521,0.60008,0.37121, 
	-0.39525,-0.00769,0.52146,0.42503,0.058417, 
	-0.15355,0.20571,0.039499,-0.21558,0.072565, 
	-0.13622,-0.00822,-0.19943,-0.19551,-0.02772, 
	-0.21746,-0.21844,-0.39471,-0.28293,-0.27777, 
	-0.13002,-0.20762,-0.57184,-0.70945,-0.49407, 
	0.12648,-0.12236,-0.55664,-0.2941,-0.25347, 
	-0.53625,-0.13119,0.3313,0.1978,0.021176, 
	-0.33615,0.22886,0.58009,0.4029,0.10128, 
	-0.17174,0.37083,0.78227,0.6032,0.030714, 
	-0.31749,0.43807,0.70823,0.50712,0.087014, 
	-0.05316,0.78705,0.68389,0.18444,-0.45226, 
	-0.02312,-0.33569,-0.18663,-0.0013,-0.10482, 
	-0.12113,-0.3825,0.07711,0.27867,-0.14789, 
	-0.03719,-0.2672,0.081423,0.3167,-0.02344, 
	-0.06714,-0.2177,0.41948,0.47139,0.23621, 
	-0.55787,-0.15709,0.43593,0.22361,0.1223, 
	-0.14632,0.042068,-0.09169,-0.02995,0.052381, 
	-0.04914,-0.12993,-0.21411,-0.12244,-0.05163, 
	-0.16592,-0.26457,-0.31976,-0.29361,-0.42934, 
	-0.09671,-0.33699,-0.55576,-0.53027,-0.3477, 
	0.18223,-0.27803,-0.49953,-0.2449,-0.02183, 
	-0.21197,-0.41301,-0.17572,0.11403,-0.15933, 
	-0.06787,-0.27622,0.14237,0.32355,-0.00397, 
	0.013169,0.030227,0.33634,0.57241,0.27647, 
	-0.04652,-0.12395,0.62826,0.46616,0.42326, 
	-0.51122,-0.01954,0.56065,0.27313,0.033994, 
	-0.07164,0.31757,0.43578,0.50314,0.4049, 
	-0.18945,-0.0207,0.11124,0.27478,0.35306, 
	-0.35374,-0.22874,-0.2399,0.17473,0.15194, 
	-0.62672,-0.24881,-0.42941,-0.17071,-0.0963, 
	-0.88494,-0.35534,-0.4256,-0.33832,-0.01093, 
	-0.01713,-0.4137,-0.43962,-0.39499,-0.33543, 
	0.21497,0.062393,0.012746,-0.31677,-0.37121, 
	0.32364,0.23137,0.11566,-0.02489,-0.23838, 
	0.57763,0.24168,0.42997,0.016306,-0.10347, 
	0.82373,0.32002,0.42212,0.2162,0.10518, 
	0.079501,0.22226,0.26157,0.1456,0.085643, 
	-0.37307,-0.01642,0.13493,0.20544,-0.11261, 
	-0.52586,-0.44715,-0.23091,0.052125,-0.08021, 
	-0.57268,-0.41464,-0.33016,-0.04397,-0.18856, 
	-0.59337,-0.67072,-0.4485,-0.33406,-0.04788, 
	-0.08182,0.27085,0.3974,0.47156,0.49442, 
	-0.11436,0.051424,0.19954,0.20827,0.36481, 
	-0.24537,-0.21998,-0.18195,0.18141,0.33888, 
	-0.51478,-0.23978,-0.24286,-0.22941,0.12981, 
	-0.8413,-0.1593,-0.1314,-0.15453,0.066082, 
	-0.12504,-0.26734,-0.47442,-0.52324,-0.20722, 
	0.29368,0.027703,-0.13731,-0.34032,-0.33341, 
	0.50962,0.25725,0.10079,-0.06975,-0.23115, 
	0.42804,0.46569,0.4317,0.040407,0.08025, 
	0.67253,0.30835,0.40287,0.17599,0.014925, 
	-0.05884,0.34738,0.28947,0.58384,0.3693, 
	-0.17518,-0.20348,-0.07698,0.27834,0.28929, 
	-0.30411,-0.42672,-0.22182,0.044193,0.14436, 
	-0.57257,-0.30876,-0.45712,-0.31536,0.029918, 
	-0.92889,-0.37169,-0.39838,-0.28751,-0.23091, 
	-1.0089,-0.39377,-0.09762,0.45953,0.35895, 
	-0.41395,-0.21563,-0.09237,0.51951,0.3421, 
	-0.13018,-0.06816,0.030209,0.36734,0.46202, 
	-0.23503,-0.24601,-0.18226,0.044723,0.42506, 
	-0.48032,-0.86431,-0.74368,0.075901,0.43802, 
	0.9747,0.16792,-0.11236,-0.3205,-0.26451, 
	0.49459,0.054569,-0.09829,-0.40478,-0.22759, 
	0.35675,-0.12112,-0.01752,-0.38081,-0.48102, 
	0.31809,0.074263,0.22724,-0.1264,-0.61599, 
	0.50488,0.41765,0.446,0.014602,-0.50001, 
	-0.37954,-0.34977,0.16456,0.25978,0.0114, 
	-0.44049,-0.22972,0.36291,0.43476,0.29348, 
	-0.15724,-0.24648,0.42404,0.56802,0.67841, 
	-0.56157,-0.67601,0.089354,0.2645,0.95062, 
	-1.0389,-1.0733,-0.20334,0.2077,1.019, 
	-0.96764,-0.42663,-0.05643,0.2783,0.41947, 
	-0.50951,-0.05572,-0.03475,0.40708,0.22827, 
	-0.05001,0.097144,0.032456,0.27766,0.38045, 
	-0.23859,-0.27365,-0.20564,0.15268,0.41715, 
	-0.45987,-0.65097,-0.58174,-0.17012,0.17607, 
	0.67108,0.12826,-0.07209,-0.48041,-0.02976, 
	0.39304,0.029693,-0.28142,-0.49233,-0.13235, 
	0.30607,-0.06244,-0.24855,-0.3357,-0.57143, 
	0.33633,0.27885,0.16317,-0.36497,-0.98701, 
	0.60236,0.65915,0.21434,-0.17936,-0.63611, 
	-0.98565,-0.36892,-0.21621,0.31908,0.28931, 
	-0.35767,-0.22621,-0.16994,0.34379,0.27651, 
	-0.16134,-0.03507,-0.01788,0.25483,0.43164, 
	-0.24718,-0.2925,-0.37534,0.16298,0.57734, 
	-0.7017,-0.94603,-0.88206,-0.03762,0.37796, 
	0.64895,0.31845,0.098505,-0.10062,0.37507, 
	0.3787,0.042184,-0.40881,-0.37279,0.33073, 
	0.40737,0.074223,-0.56558,-0.22069,0.4, 
	0.22246,-0.14452,-0.26111,0.22891,0.77174, 
	-0.29708,-0.42868,-0.34749,0.32868,0.98383, 
	-0.85016,-0.64829,-0.28719,-0.14496,-0.61725, 
	-0.44161,-0.2184,0.2021,0.29818,-0.31187, 
	-0.40001,-0.19605,0.15752,0.25662,-0.43278, 
	-0.13724,-0.20523,0.10705,-0.06644,-0.79935, 
	0.24105,0.25619,0.037453,-0.51755,-0.86008, 
	0.55636,0.091146,-0.38107,-0.04401,0.45907, 
	0.44494,-0.30103,-0.76736,-0.01633,0.38865, 
	0.42185,-0.46744,-0.57406,0.35972,0.30606, 
	-0.08175,-0.60167,-0.26593,0.70675,1.0387, 
	-0.65249,-0.66814,-0.01398,1.0887,2.1717, 
	0.39553,0.33098,0.10879,-0.25912,0.026636, 
	0.081571,-0.03315,-0.36848,-0.52925,-0.14508, 
	0.18446,0.075661,-0.50619,-0.57766,0.064083, 
	0.12383,0.026643,-0.52146,-0.22026,0.51842, 
	-0.37642,-0.2145,-0.47352,0.20914,0.63286, 
	-0.70817,-0.31527,-0.06092,-0.20031,-0.83298, 
	-0.21537,0.084109,0.27339,0.12959,-0.48049, 
	-0.27105,0.11699,0.30047,0.054778,-0.65035, 
	-0.28569,0.10338,-0.06156,-0.48342,-1.0076, 
	0.092165,0.31248,-0.03627,-0.6429,-1.0362, 
	0.62322,0.29145,0.047009,-0.28092,0.36001, 
	0.35727,-0.03633,-0.52868,-0.40861,0.25962, 
	0.23426,0.10149,-0.35648,-0.33356,0.43405, 
	0.088045,0.12872,-0.40963,0.2179,0.96723, 
	-0.59837,-0.43141,-0.49157,0.30554,1.124, 
	-0.3443,-0.40241,-0.05024,-0.06874,0.055144, 
	-0.52124,-0.38983,-0.2697,-0.1539,0.21686, 
	-0.53741,-0.33738,-0.15427,0.040117,0.35906, 
	-0.68595,-0.29785,0.21834,0.30762,0.40024, 
	-0.68888,-0.05055,0.82742,0.56893,0.39504, 
	0.50374,0.50227,0.26827,0.14447,-0.12791, 
	0.40243,0.37974,0.33118,0.009838,-0.23461, 
	0.43166,0.46104,0.15495,0.09459,-0.27608, 
	0.45982,0.03429,-0.04917,-0.09539,-0.13991, 
	0.63874,0.02913,-0.37898,-0.40882,-0.01276, 
	-0.57005,-0.25449,-0.05193,-0.10499,0.44109, 
	-0.3725,-0.30738,-0.033,0.3912,0.55661, 
	-0.56301,-0.3056,0.032498,0.51676,0.22389, 
	-0.45816,0.33982,0.45159,0.4455,0.22134, 
	-0.16519,0.83034,0.76868,0.26471,0.016252, 
	-0.18224,-0.4655,-0.14911,-0.04704,0.11327, 
	-0.47758,-0.31696,-0.07732,-0.09085,0.24067, 
	-0.49893,-0.29679,-0.09777,-0.12153,0.2352, 
	-0.36088,-0.2679,0.23648,0.22493,0.23817, 
	-0.46709,-0.0818,0.63343,0.47949,0.2, 
	0.64795,0.44468,0.20884,-0.0551,-0.31517, 
	0.45868,0.47736,0.20185,-0.19949,-0.24496, 
	0.54889,0.30605,0.19265,-0.1567,-0.28963, 
	0.44221,-0.01091,-0.14938,-0.15941,-0.15835, 
	0.36678,-0.3233,-0.43278,-0.41475,-0.06912, 
	-0.42542,-0.60282,-0.14213,-0.18117,0.072241, 
	-0.57667,-0.53468,-0.29959,-0.00287,0.44731, 
	-0.46109,-0.29375,-0.09244,0.12409,0.45826, 
	-0.63844,-0.3282,0.21755,0.46644,0.37297, 
	-0.56778,0.04636,0.6849,0.6916,0.43801, 
	0.81555,-0.2417,-0.84365,-0.70295,-0.22735, 
	0.65106,0.028581,-0.22719,-0.70526,-0.40335, 
	0.46704,0.12588,0.13814,-0.40812,-0.55998, 
	0.5245,0.42085,0.53326,0.042219,-0.44045, 
	0.46246,0.38696,0.5282,-0.06024,-0.57433, 
	-1.0561,0.13978,0.5265,0.55511,-0.0619, 
	-0.90939,0.080032,0.18421,0.49251,0.23921, 
	-0.81828,-0.16723,-0.00636,0.10426,0.37854, 
	-0.72768,-0.67024,-0.51205,0.024983,0.26721, 
	-0.48492,-0.59325,-0.68677,-0.19778,0.357, 
	0.3628,-0.63467,-0.7955,-0.48689,-0.09021, 
	0.32183,-0.12337,-0.72087,-0.57914,0.12618, 
	0.55867,0.40312,-0.13607,-0.31312,0.12789, 
	0.67997,0.79612,0.29827,-0.04621,-0.27413, 
	0.5777,0.96625,0.16995,-0.27727,-0.54395, 
	0.76099,-0.35957,-0.98255,-0.79064,-0.36613, 
	0.46972,-0.06712,-0.49298,-0.73975,-0.51323, 
	0.38397,-0.12825,-0.1245,-0.31238,-0.69076, 
	0.39857,0.078405,0.31983,-0.07994,-0.54854, 
	0.2896,0.30518,0.37621,-0.00449,-0.43423, 
	-0.53749,0.39231,0.61408,0.24427,-0.04788, 
	-0.70043,0.20415,0.32001,0.35059,0.002955, 
	-0.50012,-0.2742,-0.07402,0.31951,0.10508, 
	-0.62487,-0.59989,-0.43076,0.064149,0.33938, 
	-0.42013,-0.7426,-0.48709,0.057157,0.53778, 
	1.0659,-0.02451,-0.84439,-0.6838,-0.3281, 
	0.74912,0.1433,-0.23573,-0.7709,-0.58084, 
	0.49186,0.29384,0.098188,-0.31397,-0.50926, 
	0.67438,0.48031,0.48931,-0.08453,-0.47043, 
	0.54332,0.54689,0.54399,0.12756,-0.57703, 
	0.063601,-0.16021,0.055724,-0.27986,-0.92883, 
	-0.20685,-0.35996,0.21341,0.15545,-0.78016, 
	-0.19317,-0.03814,0.32397,0.10327,-0.56652, 
	0.25551,0.32834,0.1827,0.022317,-0.16082, 
	0.63243,0.24967,-0.09521,0.027471,-0.12182, 
	-0.05994,0.21464,0.27036,0.39553,1.1768, 
	0.44839,0.22961,0.14531,0.10955,0.67966, 
	0.13372,0.25964,-0.1374,0.07003,0.58372, 
	-0.19218,-0.1161,-0.15917,0.009734,0.13565, 
	-0.4032,0.11258,-0.13351,-0.11734,0.047648, 
	-0.5174,-0.35763,0.075835,-0.54739,-1.3476, 
	-0.49734,-0.07128,0.29356,-0.48952,-0.96526, 
	-0.07844,0.20717,0.35278,-0.48589,-0.70706, 
	0.084321,0.18646,-0.07786,-0.40314,-0.58504, 
	0.16896,-0.07362,-0.06205,-0.01924,-0.27971, 
	0.16232,-0.1818,0.048315,-0.11952,-0.67575, 
	-0.15495,-0.36485,0.16017,0.1498,-0.34711, 
	-0.15435,-0.21955,0.20247,0.1471,-0.37313, 
	0.21654,0.30421,0.32238,0.22245,-0.16967, 
	0.50295,0.21221,0.039598,0.2012,0.044468, 
	0.12269,0.12925,0.18219,0.78683,1.2878, 
	0.37826,0.21186,0.027366,0.40071,1.0076, 
	0.17543,0.022924,0.010082,0.1169,0.50428, 
	-0.09053,-0.00108,-0.14893,0.033029,0.3766, 
	-0.14417,-0.04109,-0.23023,-0.07736,0.23421, 
	0.093692,-0.1896,-0.01013,-0.047,-1.0225, 
	-0.25626,-0.4204,0.149,0.14665,-0.53498, 
	-0.09786,-0.10857,0.19589,0.22919,-0.5099, 
	0.30504,0.32055,0.24382,0.067741,-0.22936, 
	0.70651,0.29715,0.058208,0.089522,0.018504
};

float w4[]  = {0.0};
float w5[]  = {
	-0.5236,-0.10452,-0.30321,-0.68648,-0.80133,-0.036805,0.27771,-0.64584,-0.66866,-0.27048,-0.058752,-0.41572,-0.85357,-0.40523,0.021926,0.39163,0.27492,-0.45784,0.37116,-0.060019,-0.44713,-0.17599,0.58778,-0.63209,-0.03683,0.24759,0.34363,-0.34315,-0.33857,-0.036757,0.14372,0.36403,0.054846,-0.016182,0.41042,-0.15892,0.48366,-0.31487,0.16774,-0.90228,0.33606,0.12134,0.67275,-0.9131,-0.12146,0.20107,-0.24425,-0.1315,-0.59532,-0.31425,-0.24798,-0.16646,-0.78245,-0.088646,0.15239,0.024396,-1.0271,-0.24612,0.63199,0.07876,-0.6477,-0.62479,0.28161,-0.54458,-0.13879,-0.23548,-0.29633,-0.3977,0.088829,-0.33879,-0.049522,-1.4458,0.43795,0.27255,0.058049,-1.6121,-0.44219,0.53034,0.61156,-0.97454,0.20572,0.36548,0.074777,0.13534,0.12953,-0.36803,-0.1183,-0.26396,0.4773,0.12289,-0.5249,-0.47223,0.12811,0.015943,-0.41051,-0.71887,-0.48811,-0.034407,-0.40168,-0.067388,-1.0332,-0.19047,0.09911,0.55787,-1.2465,-0.40171,0.42764,0.54738,-0.49476,-0.95316,-0.42076,-0.092958,0.11627,0.45621,0.24889,-0.38324,-0.35754,0.55272,0.53152,-0.19001,-0.76087,-0.57098,-0.48462,-0.57725,-0.32438,-0.50996,-0.14395,0.58393,-0.52497,-0.79381,-0.64684,0.009885,0.2006,0.063711,0.28763,1.1096,-0.080018,-0.34965,-0.30662,-0.48542,1.0179,0.56471,-0.6704,-0.84029,-0.11144,0.12812,0.46614,0.75588,-0.07252,0.59044,1.183,-0.41993,0.46852,0.88372,-0.067608,-1.064,-0.35613,-0.70723,-0.47627,0.55047,-0.35275,-0.33436,-0.32324,0.042654,-0.078394,-0.98033,-0.48579,-1.008,0.093292,0.23538,-0.95196,-1.3823,0.55219,0.74101,-0.24706,-0.8986,0.060618,0.066808,-0.094154,-0.43564,0.066862,-0.1083,-0.4236,-0.55547,-0.13036,0.2607,0.17925,-0.1232,-0.65404,-0.01606,0.79699,0.43139,
	0.034284,-0.23549,-0.28016,-0.42339,-0.018765,0.061752,-0.07229,-0.70678,0.021332,-0.31958,0.06152,-0.25376,0.48366,0.19856,0.15197,-0.26279,-0.38912,0.22419,0.42693,0.38592,0.33051,-0.21895,-0.037289,0.4103,-0.21601,-0.63947,-0.0064462,0.039376,0.037009,0.31274,0.31972,0.6855,0.092336,-0.2173,1.0174,0.75841,-0.06492,-0.56245,-0.139,0.32112,0.065923,-0.61223,0.034036,-0.013986,0.041752,0.43851,0.28048,0.28521,1.006,-0.01468,-0.10146,0.94538,0.43528,0.29048,-0.093441,0.28725,0.51432,-0.30746,-0.31111,-0.16536,0.29285,-0.36637,-0.36105,-0.039942,0.45936,0.10734,0.29926,1.4785,0.56162,-0.63721,-0.10638,-0.0072236,0.33864,-0.16646,-0.34834,-0.189,0.06225,-0.47947,-0.67763,0.24449,-0.94362,0.2677,-0.41227,-1.0807,-0.92387,-0.62416,-0.14164,-0.11767,-1.092,-0.020248,-0.083769,-0.82198,0.10358,0.0085873,0.054807,-0.75407,0.53201,0.36464,-0.15322,-0.30036,0.33088,-0.49224,-0.067106,-0.22329,-0.13684,-0.19177,-0.034047,-0.15539,-0.17644,0.68749,0.26008,0.16845,-0.81165,-0.6712,-1.0976,-1.1853,-0.28341,-0.24884,0.23243,0.14008,-1.0417,-0.9314,-0.011643,-0.096066,-0.14114,-0.19414,0.28048,-0.21184,-1.9817,-1.712,-1.988,-2.3877,-0.72867,-0.32706,-0.85519,-0.29531,-0.69058,-1.2135,-0.49484,0.22194,-1.7594,-1.0756,0.12497,-0.96658,-0.10275,-1.1993,0.73646,0.64087,-0.13215,-0.43023,0.53434,0.86605,-0.55242,-1.2864,-0.0094338,0.61291,0.44669,0.35848,0.37764,1.5139,-0.65134,-0.71784,-1.0561,-0.049193,-0.49611,-0.62006,-0.5464,-0.53666,-1.493,-0.23494,-0.090042,-0.22303,-1.5813,-0.63612,-0.67953,-0.087678,0.47055,-0.4303,-0.63714,0.70037,0.083587,-0.19649,-0.54016,-0.50145,-0.39566,0.034342,-0.56636,0.060239,0.10633,-0.7496,-0.16498,0.31959,
	0.8565,0.63442,-0.55016,-0.8246,1.2247,0.43379,-0.63333,0.51714,-0.051368,-0.3297,0.42512,0.86843,-0.60662,-0.15353,-0.12204,-1.0078,0.22129,-0.24535,0.28799,0.0671,-0.85962,-0.44032,-0.011559,-0.73596,-0.70399,-0.28181,-0.024481,0.19275,-0.51991,-0.040082,-0.036289,0.16445,-0.33071,0.3169,-0.17208,0.47196,-0.54514,-0.80345,-0.046974,-0.33594,-0.87176,-0.21265,0.58898,-0.47605,-1.1385,-0.38804,-0.024284,-0.015124,0.45764,0.31575,-0.30122,-0.18889,1.4739,0.34863,-0.044034,-0.25321,-0.017737,-0.93613,-0.2812,-0.47191,-1.5846,-1.4021,-0.48141,-0.059041,-0.57589,-0.48335,-0.38783,0.89409,0.40307,0.64725,0.47113,-0.49156,0.89827,0.26889,-0.26291,-0.45811,-1.1191,-0.17928,0.74384,1.3106,-0.52056,-0.0052577,-0.36993,-0.59541,-1.9347,-0.55595,-0.83878,-0.60529,0.078028,0.23254,-0.54115,-0.67117,0.55145,0.33675,-0.48634,0.0035496,0.78391,0.47662,0.042897,0.24576,-0.31535,-0.097569,0.37575,0.598,-0.88413,-0.69052,-0.25274,-0.016629,-2.0065,-0.36252,-0.33393,-1.1676,1.7418,1.066,0.3044,0.12774,0.7715,0.60956,0.97256,-0.03768,-0.96677,0.00683,-0.23093,-0.2357,-0.019278,0.67123,-0.13718,-1.479,0.071507,0.2505,0.019501,-0.025319,0.33321,-0.62873,-0.45549,-0.17568,-0.89187,0.04399,0.29555,-1.056,-0.45524,0.16009,0.71772,1.6176,0.72555,0.11006,0.89422,0.36406,-0.87568,-0.70706,-0.16284,-0.67509,-1.2075,-0.75666,-1.16,-0.39342,-0.37872,0.3119,-0.36577,-1.474,-1.0549,0.056806,0.11459,0.9545,0.33822,0.095898,0.18375,-0.53368,0.80236,0.89912,-0.39727,0.465,1.7895,1.0382,-0.12406,3.0612,-0.54699,-0.87957,-0.49772,0.78057,-0.34891,0.068746,-0.1182,-0.0051856,0.17393,0.25771,0.74626,0.18793,0.088035,0.87833,-0.39225,-0.57804,
	0.55195,0.2611,0.025085,-0.088812,0.13793,-0.62151,-0.24754,-0.1411,-0.22018,0.40138,0.3964,-0.37902,-0.32251,0.23109,0.11737,-0.091732,-0.4901,-0.52692,-0.9685,-0.57442,-0.79303,-1.0049,-0.42348,-0.36863,0.065336,-0.46019,0.43117,-0.29361,-0.00027433,-0.13651,-0.37869,-1.1325,-0.57399,-0.055027,-0.091616,0.59679,-0.74882,-0.89031,-1.1609,-0.70038,-0.38062,-0.62852,-0.0031392,-0.75523,-0.17902,-0.57597,-0.59216,-0.45477,0.86853,0.38363,0.14976,-0.067442,1.1153,0.42077,-0.35446,-0.9383,-0.1865,0.35375,-0.33196,-0.089129,0.34058,1.1731,0.75745,0.40117,0.3696,-0.21447,-0.23202,0.49073,-0.092417,-0.20483,-0.15775,-0.97771,-0.23607,-0.76395,-0.10454,0.19466,0.91154,0.47519,-0.27347,-0.78434,-0.64952,-0.39722,-0.52098,0.051968,-1.3574,-0.36028,0.096552,-0.14215,0.031486,-0.39718,0.4914,-0.15386,-0.95471,-1.6878,-1.0449,-0.18679,0.49363,0.36839,-0.10513,-0.076034,0.21025,0.36293,-0.52321,-0.13493,0.13431,0.6873,0.25803,0.060238,-0.6863,0.18271,0.62632,0.03787,1.408,0.24131,-0.55958,-1.0171,-0.37998,-0.47951,-0.61261,-0.11936,0.40792,1.1239,0.59273,-0.57785,-0.067862,0.11002,0.091765,-0.19787,0.14304,0.87697,-0.21048,-0.29723,-0.81009,-0.40631,-0.18551,0.45309,-0.94457,-0.42273,0.48074,0.49952,0.17211,-0.028908,1.0281,0.49441,-0.34919,-0.61399,-0.83627,-0.62913,-0.5364,-1.0013,-0.28193,0.16063,-0.12201,1.2402,0.91069,-0.43918,-1.1195,-0.74141,-0.53268,-0.80063,-0.69727,-1.4386,-0.84579,0.5811,-0.38143,-0.16097,0.38185,0.023938,0.1213,-0.67887,-0.36948,-0.11687,1.0104,0.37492,-0.6592,-1.4728,0.012544,-0.5555,0.27327,0.4796,0.0074567,-0.16298,-0.64245,-1.0045,0.61698,-0.39194,0.14243,-0.4819,0.25534,-0.35087,-0.54689,-0.37232,
	-0.91072,-0.31299,-0.3252,-0.99487,-0.20505,-0.11694,-0.016871,-0.12132,-0.55713,-0.69681,-0.29687,-0.32614,0.26088,0.22217,-0.16167,-0.14563,-0.11008,-0.48042,-0.52519,0.098902,0.17921,0.36459,-0.80144,0.23418,0.070698,-0.066738,-0.66805,-0.29631,0.68115,0.15797,0.02862,-0.06451,0.23956,0.37805,0.23412,0.23458,0.21477,0.23425,-0.5652,0.16371,-0.41918,0.33901,-0.64262,-0.11608,0.013983,0.1359,-0.12558,-0.12939,0.22902,0.54912,0.072342,-0.69472,-0.92864,-0.59461,0.17776,-0.66975,-0.48379,-0.41084,0.1855,0.21503,-0.63321,0.23038,-0.30838,-0.016954,1.4443,1.6634,1.5358,-0.73094,-0.47905,0.26117,-0.86484,-1.2154,-0.58721,0.14949,-0.21597,-0.66268,-0.60685,-0.54935,-0.28339,-0.3908,-0.64305,-0.38868,-0.36459,-0.15234,0.75279,0.42128,-0.067032,0.53752,0.28359,0.13795,-0.25367,0.2795,-0.027937,0.095942,0.62541,-0.32744,-0.30055,-0.74975,0.024046,-0.069705,-0.83594,-0.53156,0.065421,-0.25571,-0.20342,-0.1102,-0.68558,-0.33176,1.5169,0.67513,0.21866,0.14869,-0.50933,-0.81273,-0.93286,-1.2763,-0.53463,-0.48579,-0.142,-1.0266,0.064881,-0.15531,-0.5218,-0.45825,1.1638,0.75377,0.20986,1.1638,-0.71097,-2.1897,-1.3895,-1.7917,-0.66003,-0.43917,0.31575,0.071025,0.46138,0.84222,-0.59062,-0.60882,0.058975,0.15228,-0.029877,0.020674,-1.2158,-1.3401,-0.77148,-0.28307,-0.25321,0.44366,-0.53856,-0.29958,0.50515,-0.11158,-0.68393,-0.96021,1.3038,0.54174,1.022,0.57375,0.39351,0.24971,-0.23666,0.18977,-0.22846,0.63956,-0.51111,0.29073,-0.64743,0.21203,0.026604,0.31816,-1.5615,-1.1196,-0.26773,-1.3907,0.47892,0.79013,1.2033,0.15505,0.25263,-0.17365,-0.51915,-0.25441,-0.94627,-0.46359,-0.25255,-0.087496,-0.41036,-0.31541,0.18365,-0.16035,
	-0.42416,-0.19882,-0.49605,0.71455,0.44567,-0.31714,-0.55547,0.74299,-0.2098,0.22157,0.10251,0.41527,0.18918,-0.31583,-0.15352,0.29377,0.19346,0.26236,0.78304,1.9745,0.003374,0.87428,0.45336,0.47972,-0.054562,0.79813,-0.17392,0.68987,-0.70385,-0.099542,0.023787,0.47842,0.33332,0.005945,-2.8169,-1.5862,0.122,0.36667,0.43961,1.5295,0.21547,0.57206,-0.27297,0.4988,-0.44747,0.30954,0.37429,1.1011,-1.6925,-1.4624,-0.28932,-1.9023,-1.464,-1.5294,0.76789,1.0703,-0.78694,-0.62135,-0.088527,0.013712,2.1666,0.21963,0.12166,-0.12906,0.86977,0.3331,-1.1107,-0.90489,-0.11397,0.84529,0.20342,2.0411,-0.48997,-0.85671,-0.79675,0.37021,0.39435,0.4869,0.859,1.8536,-0.11305,-0.55044,-0.87736,-0.83434,-0.70567,-0.0090375,-0.7862,-0.95857,-0.72768,0.41189,-0.89768,-1.1603,-2.0582,-0.56207,-0.96165,-1.6394,0.29145,-0.93745,0.34463,0.15764,0.53369,-0.19413,-0.22508,-0.58983,0.83678,-0.12837,0.95771,-0.26435,-1.5857,-0.80957,0.58708,0.080928,-0.55564,-0.91309,-0.7124,0.62644,-0.66255,-0.52023,0.23229,1.0371,0.83576,0.49613,0.54894,0.65485,0.57047,-0.25489,-0.16927,-0.49477,-0.52401,-0.9184,0.43256,1.8594,-0.93985,1.1896,0.27335,-0.47769,-0.20958,0.11845,0.35463,-0.10526,-0.22516,-0.19939,-1.2317,-0.58132,-0.28109,0.55507,-0.18144,0.77792,-1.4542,0.90442,-0.18477,-0.72632,-0.25599,0.55038,0.44907,0.54965,-1.6302,-0.6425,-0.50597,0.53776,-0.4998,0.52022,0.75215,1.7188,0.54502,0.66293,0.11524,1.046,-1.6249,-0.10383,-0.12761,0.26506,0.16195,-0.063632,-0.50053,0.61039,-0.83779,0.26314,0.31787,-2.0188,-0.37274,-0.66095,-0.16916,1.6032,-0.57355,-0.6551,-0.74778,-0.68286,-0.79106,-0.051893,-0.24911,-0.58288,
	-0.38793,0.59328,0.65846,1.0084,0.028062,0.50258,0.16139,-0.15719,-0.4082,-0.60365,-0.5589,0.21321,-0.91844,0.077123,-0.018517,-0.71736,-0.35448,-0.57804,-0.068217,0.34819,-0.010241,-0.40228,-0.11463,0.030409,-0.28699,-0.41651,-0.50343,0.16669,-0.4228,0.038643,-0.20511,-0.8978,-0.13462,0.11249,0.074993,0.19028,0.30689,-0.25763,-0.25392,0.28573,0.28073,-0.19534,-0.10576,-0.11547,0.076974,-0.16407,0.11819,-0.90391,-0.1395,0.031645,0.48927,0.013818,-0.66963,0.2805,-0.80493,-0.12653,-0.75628,0.1204,-0.28264,0.13756,-1.4236,-0.51121,0.31691,0.44513,0.51727,-0.021019,0.70325,1.5507,-0.40348,0.342,-0.096479,1.2936,0.30301,0.15035,-0.10299,0.58299,-0.0020827,-0.99484,-0.74305,-1.2903,-0.58058,-0.20165,-0.33484,-0.67199,0.6322,-0.63894,0.44584,-1.1169,0.29307,-0.33318,-0.081763,-0.17458,0.84187,0.33526,-0.23471,0.17402,-0.4016,-0.61465,-0.59946,-0.69767,-0.51686,-0.13982,-0.41075,-0.98182,-1.3312,-0.1365,-1.212,0.13717,-1.4797,-0.77616,-0.60371,-0.22629,-1.3556,-0.57869,0.35093,1.0726,-0.60646,-0.41703,-0.3556,0.026078,-2.0728,-0.97491,-0.59134,0.22627,-1.58,-1.1527,-0.64433,-0.59833,-1.4741,-0.85009,-0.124,-1.0442,-0.26501,0.92732,0.77871,0.18593,-0.47958,-0.33857,-0.24398,0.049303,0.71433,-0.28694,0.37874,0.40375,-0.71341,-0.49128,-0.39323,-0.0046189,-0.68882,-0.1266,-0.29574,0.053735,-0.025856,-0.052798,-0.15254,-0.47079,0.64137,-0.052124,-0.49795,-1.1937,0.11598,-0.20119,-0.42842,0.040962,0.15664,0.031288,0.46141,0.9852,0.19526,-0.79019,-0.11946,0.26261,0.69298,-0.12278,0.043286,-0.1645,1.8476,0.60527,0.96149,0.71206,0.66213,-0.078067,0.11532,1.1147,0.58925,0.015204,0.64735,0.47527,0.22287,-0.33719,-0.4036,0.29208,
	0.73772,-0.35545,-0.45568,-0.43079,-0.40036,-0.19646,-0.092485,0.32685,0.60271,0.31047,-0.38078,0.19685,0.57931,-0.15059,-0.9952,0.42987,-0.48902,-0.22392,-0.16601,-0.73352,-0.49015,-0.36387,0.5945,-0.30936,-0.16131,-0.21723,0.19319,0.038711,0.18912,0.33274,-0.23152,0.47864,0.34142,0.52207,-0.15997,-1.4272,-0.61298,0.15174,-0.25931,0.47596,0.36672,0.57697,0.47919,0.26951,0.64352,0.87302,0.44214,0.46265,-0.52445,-0.032184,-0.70706,-0.29085,0.71496,0.50307,-0.33414,-0.10625,-0.73963,-0.45851,0.10594,-0.11353,0.98923,-0.31539,-0.27273,0.12693,-1.0671,-0.25225,-0.14049,-1.2336,0.5014,0.057038,-0.33836,-1.3641,0.015106,0.43547,-0.39023,-0.040105,-0.30411,-0.36432,-0.098399,0.064574,0.28087,0.21213,1.0655,0.43406,-0.24789,-0.7226,-0.85178,0.43303,-0.19448,0.036375,-0.14314,-0.67098,-0.74374,0.15396,0.025399,-0.3718,0.074664,0.47017,0.20051,0.12109,-1.0016,-0.21451,0.42623,-0.0011047,0.611,-0.0024696,0.58021,-0.13643,1.7397,0.89856,0.26726,-0.078872,0.8384,1.0085,0.76537,1.2231,0.24864,-0.12012,-0.083927,0.17983,-0.2441,-0.37693,-1.3282,-0.49923,0.27919,-0.8787,-0.85407,0.097791,1.8886,0.44117,0.53285,-0.17217,-0.59449,0.33222,-0.22251,0.40387,0.36614,-0.65979,-0.89716,-0.72809,-0.41019,-0.52368,-1.0643,-1.5615,0.57677,1.2568,0.44845,-0.10631,-0.0338,-0.28484,0.024055,-0.4141,-0.61263,-0.24368,-0.1572,-0.36695,0.21075,0.22692,0.32059,0.90419,-1.6017,-1.615,-0.90608,-1.0523,-1.6577,-1.7717,-1.2689,-0.61568,-1.7459,-1.2131,-0.56515,-0.26586,-2.6297,-0.59572,-0.36367,-0.80418,-0.60519,0.45273,-0.099074,-1.55,-0.15327,-0.66292,-0.60601,-0.779,-0.67164,-0.20239,-0.67593,0.13806,-0.6256,-0.49182,0.28483,0.27972,
	-1.7129,0.18023,0.60998,-0.92541,-0.38832,-0.29745,0.070089,0.42309,-0.71645,-0.13479,0.35815,-0.30806,-1.988,-0.78176,-0.50846,-0.95717,0.23076,-0.14195,-0.1563,-0.76045,-0.47594,0.015018,-0.99176,-0.7521,-0.66578,-0.10607,0.075029,1.6219,-0.41246,0.49183,0.15715,0.42807,0.14013,-0.45647,-0.025745,0.2696,0.58028,0.29863,-1.3076,-1.5214,-0.22088,0.60007,-0.50927,-0.38734,1.4967,1.1266,-0.50582,-0.8501,-1.0224,-1.2312,0.054944,0.40523,0.038844,-0.72988,-0.082286,-1.2208,0.49042,-1.0748,-0.80225,-0.83205,-2.6568,-0.64886,-0.045341,-0.25395,-0.57856,-1.076,-2.0054,-0.10228,0.34958,0.52298,-0.20562,-3.6649,-0.88664,-0.28748,-0.014783,0.27431,-0.47501,0.23463,0.45777,-0.076272,1.6843,-1.1624,-1.3899,-0.31854,0.85103,0.40049,0.42219,0.331,0.54912,0.29232,-0.57646,0.11527,1.0194,0.25297,-0.16304,0.16456,-2.1404,-0.12693,-0.028722,-0.46502,-0.065476,-0.6065,0.095254,0.069597,-0.97542,0.029671,0.047933,0.7251,0.78891,-0.38847,0.014462,-0.00791,-1.4856,0.51761,-0.058591,0.81242,1.6104,0.21378,-0.018383,-1.262,-0.0041396,-0.009272,-1.9606,-1.5449,0.15011,-0.75281,-1.0999,1.3441,1.7266,0.21004,0.026709,-0.51738,1.0705,-0.75643,0.17258,0.33508,-0.6989,0.64909,0.87352,-0.23715,-0.37162,0.77934,-0.19964,-1.4547,0.43312,-0.71038,-0.17948,-0.28709,-0.74066,0.16856,-0.10226,0.41694,-1.4898,-0.14016,0.88549,2.3318,-0.69047,0.046172,0.47681,0.72371,0.87187,0.95316,-0.46538,-0.64385,-1.4082,0.58564,1.9432,2.1981,-0.9572,-0.16098,1.1172,1.9969,-0.37461,0.58456,0.052882,0.19028,-0.4401,-0.25006,-0.76376,1.2839,0.28298,0.36753,0.23741,0.29602,-0.82201,-0.39974,0.53194,-0.63724,-0.29565,0.13062,-0.65775,-0.73705,
	-1.3552,0.24964,1.1626,-0.090861,-0.41059,-0.69491,-0.36002,-0.058395,-0.73069,-0.10586,0.36791,-0.14622,1.3174,1.7096,0.9562,-0.32598,-0.3382,-0.71204,0.6947,-1.4298,0.82063,0.081481,0.014039,-0.34228,1.167,-0.39933,-0.39911,0.033505,0.42482,0.12999,0.52355,0.2811,-0.33338,-1.0932,-0.052077,-1.1093,0.10634,-0.60401,-0.112,-0.93669,0.15037,-1.0324,-0.073242,0.042467,-0.57439,-0.18827,0.1904,0.23916,-0.74686,0.10625,-0.51168,0.90454,-0.98476,-0.31248,-0.5077,-0.51999,0.69221,0.95188,0.44315,0.22931,1.0749,-0.42753,-0.12395,-0.37202,-1.5008,-2.5846,-1.7197,-0.76868,-0.46394,-0.52745,0.0044517,-1.1297,-0.7299,-0.72828,-0.19694,-0.55694,-0.80212,-0.16673,-0.20563,0.45166,-0.29469,0.17174,-0.54246,-1.1248,-0.21956,0.12633,0.79128,-0.087029,-0.8988,-0.37225,-0.15962,-0.80282,-1.5505,-0.31846,-0.19292,-0.21443,-1.9161,-0.78783,-0.96982,-0.27535,0.25987,-0.60483,-1.2099,0.071412,0.0036029,-0.74299,-0.97226,-0.79182,0.71378,0.51182,1.0076,-0.20503,-1.4707,-0.68454,-1.0719,-1.0328,-0.39471,-0.69359,-0.49115,0.96641,0.036374,0.012671,1.1396,1.2758,0.90864,0.67468,2.1651,-0.73754,0.070597,1.0258,1.3586,0.27084,1.5918,0.83752,-0.36941,-0.89981,-0.53477,-0.54651,0.77942,0.51159,-0.53962,-0.79733,-0.40301,-0.3861,0.20373,-0.39756,-0.77541,-1.1247,2.2461,0.050131,0.47675,0.84159,1.0147,-0.68396,-0.81244,0.15047,0.84452,0.8771,0.62857,-0.15852,0.066777,-0.38677,-0.46297,-1.242,1.1706,-0.063598,-0.82426,-2.1794,-0.66625,0.060477,-0.48676,-0.30195,-1.2681,-2.1465,-1.6089,0.96874,0.53454,-1.215,-2.0498,-0.3681,-1.1179,-0.43903,0.32606,-0.85566,0.038229,-0.26536,-0.053786,0.26073,-0.21561,-0.19132,-0.052691,0.27779,
	-0.37005,-0.17905,-0.092515,-0.03607,0.26002,-0.36004,0.089814,-0.44116,0.47551,-0.42598,0.086127,-0.18054,-0.052064,-0.27925,-0.075782,-0.48315,-0.057446,-0.69921,0.50142,0.04548,0.47883,-0.5266,0.39421,0.4136,0.034975,-0.35042,0.070293,-0.90195,-0.15887,-0.19471,0.52857,-0.78546,-0.044712,-0.53202,0.22573,0.46376,0.36326,-1.0168,0.10766,-0.043388,-0.063974,-0.14846,0.33115,0.30352,-0.13983,-0.15718,0.18725,-1.1316,-0.8545,0.067198,-1.0116,-0.5064,-0.50857,-0.041763,-0.84234,0.33861,0.48896,0.1587,-0.89314,0.069693,0.3465,0.049911,-1.0044,-0.12076,-0.17386,-0.34565,-0.59924,-0.68604,-0.091774,-0.82266,0.13859,0.4769,-0.37102,-0.48899,-0.37724,-0.032573,0.77397,-0.63265,-0.38563,-1.2721,0.7187,0.060288,0.69058,-0.20004,0.3549,-0.24265,0.14695,-0.89492,-0.57821,-0.34648,0.13102,0.035412,-0.5815,-0.30664,-0.11784,-0.61884,-1.1787,0.14834,-0.54053,0.14824,-0.27317,0.0055925,-0.18544,-0.21642,0.38632,0.07198,-0.6443,-0.059155,0.026359,0.030843,-1.0572,-0.043953,-0.46538,-0.09261,0.47759,0.40896,-0.042907,-0.68276,-0.20949,-0.17645,0.89356,0.42837,0.12909,-0.45198,-0.2725,-0.20166,-0.15806,-0.32914,-0.2699,-0.06794,-0.042162,-0.51595,0.49128,-0.57595,0.29958,0.61846,0.68959,0.10638,-0.48959,-0.46759,-0.48383,-0.34324,-0.018824,0.59861,0.020407,-0.30778,0.37157,1.2585,0.65534,-0.8928,-0.35417,-0.33137,0.54156,-0.35577,-0.16002,-0.054476,-0.28399,-0.75958,-0.12681,-0.45437,0.32163,-1.2401,-0.050927,-0.8266,-0.35204,-0.2713,0.096195,0.54527,-0.13905,-0.20235,-0.4903,-0.9521,0.15834,-0.33105,0.49083,-0.45232,-0.062705,-0.42917,-0.11535,-0.017832,-0.29155,-0.60363,-0.20139,-0.32532,-0.38681,-0.13402,0.33852,0.4842,0.072592,-0.38247,-0.35969,-1.0891

};
float w6[]  = {0.0};
float w7[]  = {0.0};
float w8[]  = {0.0};
float w9[]  = {0.0};
float w10[] = {0.0};
float w11[] = {0.0};
float w12[] = {0.0};
float w13[] = {0.0};
float w14[] = {0.0};
float w15[] = {0.0};
float w16[] = {0.0};
float w17[] = {0.0};
float w18[] = {0.0};
float w19[] = {0.0};
float w20[] = {0.0};
float w21[] = {0.0};
float w22[] = {0.0};
float w23[] = {0.0};
float w24[] = {0.0};
float w25[] = {0.0};
float w26[] = {0.0};
float w27[] = {0.0};
float w28[] = {0.0};
float w29[] = {0.0};
float w30[] = {0.0};

float b1[]  = {
	-3.237,3.279,-3.2928,-2.2514,3.3424,-3.4141
};
float b2[]  = {0.0};
float b3[]  = {
	-0.044561,0.13685,-0.076646,0.16295,-0.072061,-0.19614,0.031632,0.031633,-0.029485,0.073141,-0.07725,0.086871
};
float b4[]  = {0.0};
float b5[]  = {
	-0.14258,-0.39194,-0.46925,-0.28675,-0.26982,-0.79909,-0.13382,-0.088284,-0.35092,-0.57077,-0.32003
};
float b6[]  = {0.0};
float b7[]  = {0.0};
float b8[]  = {0.0};
float b9[]  = {0.0};
float b10[] = {0.0};
float b11[] = {0.0};
float b12[] = {0.0};
float b13[] = {0.0};
float b14[] = {0.0};
float b15[] = {0.0};
float b16[] = {0.0};
float b17[] = {0.0};
float b18[] = {0.0};
float b19[] = {0.0};
float b20[] = {0.0};
float b21[] = {0.0};
float b22[] = {0.0};
float b23[] = {0.0};
float b24[] = {0.0};
float b25[] = {0.0};
float b26[] = {0.0};
float b27[] = {0.0};
float b28[] = {0.0};
float b29[] = {0.0};
float b30[] = {0.0};

float* W[] = {
	(float*)w1,  (float*)w2,  (float*)w3,  (float*)w4,  (float*)w5,  (float*)w6,  (float*)w7,  (float*)w8,  (float*)w9,  (float*)w10,
	(float*)w11, (float*)w12, (float*)w13, (float*)w14, (float*)w15, (float*)w16, (float*)w17, (float*)w18, (float*)w19, (float*)w20,
	(float*)w21, (float*)w22, (float*)w23, (float*)w24, (float*)w25, (float*)w26, (float*)w27, (float*)w28, (float*)w29, (float*)w30
};

float* B[] = {
	(float*)b1,  (float*)b2,  (float*)b3,  (float*)b4,  (float*)b5,  (float*)b6,  (float*)b7,  (float*)b8,  (float*)b9,  (float*)b10,
	(float*)b11, (float*)b12, (float*)b13, (float*)b14, (float*)b15, (float*)b16, (float*)b17, (float*)b18, (float*)b19, (float*)b20,
	(float*)b21, (float*)b22, (float*)b23, (float*)b24, (float*)b25, (float*)b26, (float*)b27, (float*)b28, (float*)b29, (float*)b30
};
#else
float* W[MAX_LAYER];
float* B[MAX_LAYER];
#endif
float* dW[MAX_LAYER];
float* dB[MAX_LAYER];
